{"HiddenLayer":[0.07453222413803434,0.7913624513693112,0.02403219626384069,0.9524663022203704,0.7356300714345553,0.9261488420152028,0.8806122578917234,0.032687897370494684,0.12960013033646162,0.16493285030116633,0.9695355112569465,0.9707626048120823,0.9106088259474279,0.045445246133048595,0.09248675437502554,0.8559144290903766,0.005849359506985765,0.96297353191973,1],"InputLayer":[0,0,1,1,2,2,1],"OutputLayer":[0.9954622598224216,0.0056828885292470755],"WeightHidden":[[-0.2997699554851335,-0.09569254533595101,-1.195481554227463,0.18644285538231034,-0.04195310578131403,-0.7026567209786799,-0.02080411038176698],[-0.25316967266251583,0.32239617885360483,0.34971619839289564,0.14810649228980044,0.2136481820750492,0.6766065294248159,-0.9451739271749814],[0.8033484249470445,-0.9146738918798183,0.02510575403733389,-0.6614641000191848,-0.4408261704856358,-0.7237090529201495,-0.7386067833844028],[0.7361821975878569,-0.4870789167040888,-0.2301985518279144,0.9376143849302391,0.47075083924250066,0.6341611014744655,0.08037812071388052],[0.7019413409276715,0.6394793180452685,0.2560967417498562,0.5446021337731256,0.9024168854283332,-0.7480948538184466,-0.08596534768376349],[-1.288302924645498,-0.7012921027260642,-0.8680836169023626,0.6025696178223995,-0.21620610273116142,1.4947094610290257,0.2375070122334266],[0.48509825907253146,-0.17003827862486304,-0.14527015425607878,0.8655232276255536,0.5339765399575622,0.5649375177439739,-0.9198433169209033],[0.8240538005886585,0.5505204151587523,0.5109818538782376,0.39500209642701917,1.118311241967613,-2.9689938491306345,-0.5921515731317007],[0.2717819767490796,-0.731645505227167,-0.3798548625458825,-0.591010233091778,-0.7807275500235092,0.23523105714622058,0.15736748613163393],[0.06782594191213648,-0.3127781853527459,0.13836237787468106,-0.3983464987554725,0.04591527755556687,-0.8918870648375129,0.32994613856695726],[0.9509242845079358,0.5822976258639042,0.05776141187969336,0.8291463415458662,0.003582323714126381,0.9869985142213679,0.5921882382817574],[0.6739412695956013,-0.2323717285964127,0.5911449544753384,0.5999440157734408,0.7973839960857244,0.3815779652174084,-0.04637652489672107],[-0.18803755756027143,0.24233145086119878,0.44607442435054045,0.873125013020473,0.11424926632735607,0.04461824245342113,0.6841547226872496],[0.1624446843187244,0.4709173195959788,0.5727996854801374,1.0074545546827487,0.8318747456986801,-2.993374284800802,-0.3020122277580953],[0.13754223842312513,-0.39448388715548643,-0.22385748230523228,-0.8504289436481957,-0.29428233779075896,-0.22444146991493447,-0.17190109987538854],[-0.06745002785943292,0.8770358901120632,-0.16474466356495251,0.5160849376683045,0.5380753998998183,0.19303921413590014,-0.031805324484563705],[-0.14939574711170442,0.39788478092979357,-0.8791746476473408,-0.3129047636340273,-0.7212314804686384,-0.9300948717611107,-0.6408243028000536],[-1.190775488742166,-0.7955082716280886,-0.8236466694937832,0.3703804608623014,-0.8133818547428109,2.409859419745382,0.5187180567193405],[0.14081969922806037,0.13190778022324645,-0.4067722827562067,0.23189950366798118,0.5390364108377641,0.8538411875053702,0.9507944985918304]],"WeightOutput":[[0.030944749042643622,0.7269151755711346,0.8341022429797882,0.13093063062383406,-0.6292535693849146,1.4225581140933172,-0.03704403950070548,-3.1889062761825806,0.6195736081222707,0.5298369896048751,0.9320029305269125,0.9549882776233192,-0.03839797068162374,-3.6971749136169096,1.0139561559373185,-0.4672191272956878,0.7121425559888951,2.8019418316312192,-0.2408484164070016],[-0.8507612290447885,0.41878430403251143,0.7361569937144204,-0.4246023822156436,-0.3791926337841374,-1.7520361361299261,0.30251073824506153,3.883792301623209,-0.4370167273519503,0.9989855640256029,-0.2741541261297289,-0.5720601372943133,0.2927197112010037,3.0606663877359273,-0.3722726624016882,-0.40340154667891454,0.1442877478347394,-2.5057959190476327,-0.4384540993907959]],"ErrOutput":[-0.004537740177578353,0.0056828885292470755],"ErrHidden":[-0.00002795365008625696,-0.0000014519134851030476,0.0000065421203453978616,-0.00001631814683347565,7.219467318601493e-7,-0.00008541959944507755,0.000010473745372145439,0.00019008020589807203,-0.000026733101637475627,0.00002121876286359151,-0.0000279070915469453,-0.000037944502720793835,0.000010187102004905149,0.0001740665570789278,-0.00003273798873194428,-0.0000033767237506366733,-0.000009963922283250467,-0.00013789820989958823,0],"LastChangeHidden":[[3.0881733721998025e-9,6.7508070594692825e-9,-4.777021118326633e-7,-4.777035021616021e-7,-9.584923970375264e-7,-9.633806209104069e-7,-4.807902852048631e-7],[4.893874862240926e-9,1.2005831757935897e-8,-5.3700744995864944e-8,-5.370205736456427e-8,-1.1229536485397082e-7,-1.2165805572371816e-7,-5.859461985810587e-8],[-6.77692096741449e-11,-6.551688002741757e-11,3.8224502777909136e-8,3.8224501066735664e-8,7.651677476549242e-8,7.641432269149017e-8,3.829227198758328e-8],[4.33998991299241e-9,8.965655839924266e-9,-1.7833344246538433e-7,-1.78334238739251e-7,-3.6100687484376104e-7,-3.6611119826170824e-7,-1.8267343237837673e-7],[1.6140791048342807e-9,1.5703078170200932e-9,3.8352589796877067e-8,3.835401084716605e-8,7.509110048891984e-8,7.523388698546809e-8,3.6738510692042784e-8],[1.1201408249990169e-8,8.347693139991308e-8,-0.0000014744859350573536,-0.0000014746077195761793,-0.0000029601732783646975,-0.0000030527282976424906,-0.0000014856873433073437],[-2.6282300241203047e-9,-5.7353601672904335e-9,2.7158779226975056e-7,2.715882303452809e-7,5.458038145636214e-7,5.495131960755317e-7,2.742160222938709e-7],[-3.7279531824359715e-8,-1.196219832834124e-7,0.0000014691981297292654,0.0000014692136144608246,0.000002975675791282891,0.0000030712191287121724,0.0000015064776615536252],[-2.584531998834665e-9,-2.1198411909984758e-9,-7.59309207266088e-7,-7.593096900843687e-7,-0.0000015160338825333413,-0.0000015170431527412382,-7.567246752672533e-7],[-2.226606940580317e-8,-4.565944345461382e-8,6.977871329297894e-7,6.977873309225574e-7,0.0000014178403352653819,0.000001444172958066084,7.200532023355926e-7],[7.772118380691808e-11,1.7450969425997045e-10,-2.0596379597877132e-7,-2.0596379885732722e-7,-4.1200531314134956e-7,-4.1247090821190493e-7,-2.0604151716257824e-7],[2.825760310812702e-10,8.826960907353121e-10,-2.6897906411181773e-7,-2.689799022344796e-7,-5.382407042547167e-7,-5.390848407417494e-7,-2.69261640142899e-7],[-2.9076153618724846e-10,-1.433362057117314e-9,2.07300678429029e-7,2.0730098206512913e-7,4.148921183942452e-7,4.163237526765092e-7,2.0759143996521623e-7],[-8.711519142199504e-8,-2.1642384062984743e-7,0.0000017782281030023683,0.0000017782626287431193,0.000003643571397426732,0.000003785498510487595,0.0000018653432944243634],[-2.0411844331595839e-10,2.391489131010087e-9,-6.886624125112313e-7,-6.88662883270681e-7,-0.0000013771207065791466,-0.0000013810890455700114,-6.884582940679153e-7],[3.969886064865264e-10,3.837650311092711e-10,-1.0330896692157582e-7,-1.0330893575761065e-7,-2.0701492244963814e-7,-2.068597272727729e-7,-1.0370595552806233e-7],[2.511464921305646e-10,5.110532984981302e-10,-1.4113321476743442e-8,-1.4113425696267601e-8,-2.847778944561745e-8,-2.8806858844621718e-8,-1.4364467968874007e-8],[-1.0265439896058788e-8,3.4096119680029746e-8,-0.00000127196742206217,-0.0000012720031838576792,-0.0000025336694042282813,-0.0000025945545529522137,-0.0000012617019821661111],[0,0,0,0,0,0,0]],"LastChangeOutput":[[-3.8086028444151387e-7,-0.000003704290878752064,-1.232531336014112e-7,-0.0000045244541886441574,-0.0000034044644568027513,-0.00000487022575421455,-0.000004155502871558531,3.459190116748484e-7,-6.670515976974264e-7,-8.279061901128198e-7,-0.000004608710123743695,-0.000004614942694936004,-0.000004305268043011282,2.7710949293126914e-7,-4.75170732692765e-7,-0.0000040235353184619685,-2.9752520209411652e-8,-0.000005083793179247644,-0.000004764802588429796],[5.968861158606622e-7,0.000005920306304435084,1.9295188148923486e-7,0.000007206050309554485,0.000005456680606112468,0.000007539353791132712,0.000006628680828880329,-3.13100534551242e-7,0.0000010428852534799426,0.0000013035245238657238,0.000007339298759175442,0.000007349136639430506,0.000006865374407241236,-2.0674794241436732e-7,7.432787445386318e-7,0.000006424769104478416,4.6701635469744286e-8,0.000007858400225155434,0.00000758383032174217]],"Regression":false,"Rate1":0.25,"Rate2":0.1}
